Language model created by QuickLM on Mon Aug 25 15:16:46 EDT 2014
Copyright (c) 1996-2010 Carnegie Mellon University and Alexander I. Rudnicky

The model is in standard ARPA format, designed by Doug Paul while he was at MITRE.

The code that was used to produce this language model is available in Open Source.
Please visit http://www.speech.cs.cmu.edu/tools/ for more information

The (fixed) discount mass is 0.5. The backoffs are computed using the ratio method.
This model based on a corpus of 41 sentences and 205 words

\data\
ngram 1=205
ngram 2=327
ngram 3=304

\1-grams:
-2.8987 "CHILDPROOFING -0.2994
-2.8987 "WHEELS -0.2994
-2.8987 10-12. -0.2779
-2.8987 27, -0.3005
-1.2859 </s> -0.3010
-1.2859 <s> -0.2704
-2.8987 A -0.3005
-2.5977 ABOUT -0.2977
-2.8987 ACTION -0.3005
-2.8987 ACTIVITIES -0.2779
-2.8987 AFTER -0.2994
-2.8987 AGES -0.2950
-2.8987 ALLOW -0.2994
-1.8573 AND -0.2882
-2.8987 ANIMATED -0.3005
-2.8987 APPETITE -0.2999
-2.8987 APPETITE. -0.2779
-2.8987 ARE -0.3005
-2.8987 AROUND -0.2944
-2.5977 AS -0.2977
-2.8987 ASK -0.2994
-2.8987 ASSIGNMENT. -0.2779
-2.5977 ASSOCIATIVE -0.2983
-2.5977 AT -0.2988
-2.8987 AVAILABLE -0.2944
-2.8987 AWAY. -0.2779
-2.8987 BECAUSE -0.2983
-2.8987 BECOME -0.3005
-2.8987 BECOMING -0.2983
-2.8987 BEEN -0.2972
-2.8987 BEFORE -0.2972
-2.8987 BEGINS -0.2999
-2.8987 BEING -0.3005
-2.8987 BELONG -0.2779
-2.8987 BOOK -0.3005
-2.8987 BOOKS -0.2779
-2.8987 BUS" -0.3005
-2.8987 CARDS -0.2779
-2.0536 CDP -0.2910
-2.8987 CERTAIN -0.3005
-2.8987 CH. -0.3005
-2.8987 CHECKLIST -0.3005
-2.4216 CHILD -0.2927
-2.5977 CHILD'S -0.2999
-2.8987 CHILDREN -0.2950
-2.8987 CHOOSE -0.2988
-2.8987 CHURCH -0.3005
-2.5977 COME -0.2944
-2.8987 COMPLETE -0.2999
-2.8987 COMPLETED -0.3005
-2.8987 COOPERATING -0.3005
-2.8987 CURRICULUM -0.2779
-2.8987 DANGER -0.2779
-2.8987 DAY -0.2779
-2.8987 DEFIANT -0.2779
-2.8987 DEMONSTRATION -0.2950
-2.8987 DEVELOPMENTAL -0.2999
-2.8987 DID -0.2999
-2.8987 DISCIPLINE -0.2999
-2.8987 DISCUSS -0.3005
-2.5977 DISCUSSED -0.2983
-2.5977 DURING -0.2944
-2.5977 EAT -0.2999
-2.8987 EATING -0.3005
-2.8987 ELAP -0.3005
-2.5977 ENCOURAGE -0.2988
-2.8987 ENDS -0.2779
-2.8987 ENGLISH -0.2779
-2.8987 EXPLORATION -0.2999
-2.8987 FAMILIAR -0.2999
-2.4216 FAMILY -0.2972
-2.5977 FETUS -0.2994
-2.2967 FINDING -0.2950
-2.8987 FOLLOW -0.3005
-2.8987 FOODS -0.3005
-2.8987 FRIENDLY -0.3005
-2.2967 FROM -0.2983
-2.8987 FULL-TIME -0.3005
-2.8987 GOAL -0.3005
-2.8987 GOAL, -0.3005
-2.8987 GOALS -0.2779
-2.8987 GOING -0.2944
-2.5977 GOLD -0.2994
-2.4216 GROUP -0.2966
-2.8987 GROUP, -0.2950
-2.8987 GROUP. -0.2779
-2.8987 HABITS -0.2950
-2.5977 HAS -0.2999
-2.5977 HAVE -0.2933
-2.8987 HEALTHY -0.3005
-2.8987 HELP -0.2994
-2.4216 HER -0.2927
-2.5977 HOME -0.2774
-2.8987 HOUSE -0.2988
-2.8987 HOUSE. -0.2779
-2.8987 IDEAS -0.2994
-2.4216 IN -0.2983
-2.8987 INFORMED -0.2999
-2.8987 INVITED -0.2977
-2.4216 IS -0.2933
-2.8987 IT -0.2779
-2.8987 JOB -0.2988
-2.8987 KEPT -0.2994
-2.8987 KID -0.3005
-2.8987 KIDS -0.2779
-2.8987 LEARNING -0.3005
-2.8987 LEAST -0.3005
-2.4216 LIKES -0.2938
-2.8987 LITERACY -0.3005
-2.4216 LITTLE -0.2994
-2.8987 LOCATION, -0.3005
-2.8987 LONGER -0.2994
-2.8987 MAINTAINING -0.3005
-2.8987 MEALS. -0.2779
-2.8987 MEAT. -0.2779
-2.1206 MOM -0.2899
-2.8987 MOM'S -0.3005
-2.8987 MOM, -0.2994
-2.5977 MORE -0.2994
-2.8987 MOVE -0.3005
-2.8987 MUCH -0.2999
-2.8987 MUSIC -0.2779
-2.5977 NEW -0.2999
-2.5977 NEXT -0.2988
-2.8987 NO -0.3005
-2.8987 NOW -0.2950
-2.5977 NP -0.2988
-2.8987 NUTRITIOUS -0.2950
-2.8987 OBJECTS -0.3005
-2.5977 OF -0.2983
-2.4216 ON -0.2961
-2.8987 ONCE -0.3005
-2.8987 OR -0.3005
-2.8987 PARENTS -0.3005
-2.8987 PARENTS' -0.2999
-2.8987 PER -0.3005
-2.8987 PLAN. -0.2779
-2.1998 PLAY -0.2756
-2.8987 PLAY. -0.2779
-2.8987 PLAYED -0.2988
-2.8987 POINTS -0.2988
-2.8987 POST -0.3005
-2.8987 POTTY -0.3005
-2.8987 PREVIOUS -0.3005
-2.8987 PROGRAM -0.3005
-2.8987 PROOFING -0.2994
-2.8987 PROVIDED -0.2950
-2.8987 PURPOSEFUL -0.3005
-2.8987 PUT -0.3005
-2.8987 PUZZLES -0.3005
-2.5977 READ -0.2994
-2.8987 REPLACES -0.3005
-2.8987 REPORTS -0.2999
-2.8987 REVIEW -0.2994
-2.8987 REVIEWED -0.3005
-2.8987 RICE -0.2999
-2.5977 SAFETY -0.2988
-2.5977 SAID -0.2988
-2.8987 SAME. -0.2779
-2.8987 SELECTION. -0.2779
-2.8987 SELF -0.2779
-2.8987 SHARING -0.2988
-2.1998 SHE -0.2955
-2.8987 SISTER -0.2999
-2.8987 SIX -0.3005
-2.8987 SOME -0.3005
-2.8987 SONG -0.2779
-2.8987 SPANISH -0.2779
-2.8987 SPIRITUAL -0.3005
-2.8987 STAGES -0.3005
-2.8987 START -0.3005
-2.8987 STARTS -0.3005
-2.8987 STRENGTH -0.2994
-2.8987 TALKING -0.2999
-2.4216 TALKS -0.2715
-2.8987 TEST -0.2779
-2.2967 THAT -0.2961
-2.0536 THE -0.2966
-2.8987 THEM -0.3005
-2.5977 THEY -0.2994
-2.8987 THIS -0.2999
-2.8987 THROUGH -0.3005
-2.8987 THURSDAY -0.2988
-2.8987 TIME. -0.2779
-2.8987 TIMES -0.3005
-1.8195 TO -0.2938
-2.8987 TODAY'S -0.2994
-2.8987 TOGETHER -0.3005
-2.5977 TOYS -0.2756
-2.8987 TRAINED. -0.2779
-2.8987 UP -0.2988
-2.8987 UPCOMING -0.2983
-2.5977 WAS -0.2999
-2.8987 WASN'T -0.3005
-2.5977 WEEK. -0.2779
-2.8987 WHERE -0.2999
-2.5977 WILL -0.2999
-2.8987 WILL, -0.2999
-2.2967 WITH -0.2938
-2.4216 WITHIN -0.2774
-2.8987 WORK -0.2999
-2.8987 YEAR -0.3005
-2.4216 YOUR -0.2994
-2.8987 YOURSELF -0.2950
-2.5977 ZAWADI -0.2988

\2-grams:
-0.3010 "CHILDPROOFING YOUR -0.2218
-0.3010 "WHEELS ON -0.2218
-0.3010 10-12. </s> -0.3010
-0.3010 27, "CHILDPROOFING 0.0000
-1.9138 <s> "WHEELS 0.0000
-1.9138 <s> AFTER 0.0000
-1.9138 <s> AGES 0.0000
-1.9138 <s> ALLOW 0.0000
-1.9138 <s> BEGINS 0.0000
-1.0687 <s> CDP -0.0000
-1.6128 <s> COME 0.0000
-1.9138 <s> COMPLETE 0.0000
-1.9138 <s> CURRICULUM 0.0000
-1.9138 <s> DEVELOPMENTAL 0.0000
-1.9138 <s> DISCUSS 0.0000
-1.9138 <s> ELAP 0.0000
-1.9138 <s> ENCOURAGE -0.1761
-1.9138 <s> ENGLISH 0.0000
-1.6128 <s> FETUS 0.0000
-1.6128 <s> FINDING -0.1761
-1.6128 <s> LITTLE 0.0000
-1.3118 <s> MOM -0.1249
-1.9138 <s> MORE -0.1761
-1.9138 <s> MOVE 0.0000
-1.9138 <s> NEW -0.1761
-1.9138 <s> PARENTS 0.0000
-1.9138 <s> PUZZLES 0.0000
-1.9138 <s> REPLACES 0.0000
-1.9138 <s> SHE -0.2553
-1.9138 <s> SPANISH 0.0000
-1.9138 <s> START 0.0000
-1.9138 <s> THEY -0.1761
-0.3010 A CERTAIN 0.0000
-0.6021 ABOUT FINDING -0.2430
-0.6021 ABOUT SAFETY -0.1761
-0.3010 ACTION SONG 0.0000
-0.3010 ACTIVITIES </s> -0.3010
-0.3010 AFTER CHILD -0.2218
-0.3010 AGES AND -0.2808
-0.3010 ALLOW CHILD -0.2218
-1.3424 AND APPETITE. 0.0000
-1.3424 AND DISCUSSED -0.1761
-1.3424 AND FINDING -0.2430
-1.3424 AND HEALTHY 0.0000
-1.3424 AND IDEAS 0.0000
-1.3424 AND INVITED 0.0000
-1.3424 AND LIKES -0.2218
-1.3424 AND MOM -0.2632
-1.3424 AND PURPOSEFUL 0.0000
-1.3424 AND SAFETY -0.1761
-1.3424 AND STAGES 0.0000
-0.3010 ANIMATED DEMONSTRATION 0.0000
-0.3010 APPETITE HAS -0.1761
-0.3010 APPETITE. </s> -0.3010
-0.3010 ARE KEPT 0.0000
-0.3010 AROUND TO -0.2825
-0.6021 AS MUCH 0.0000
-0.6021 AS SHE -0.2553
-0.3010 ASK HER -0.2218
-0.3010 ASSIGNMENT. </s> -0.3010
-0.3010 ASSOCIATIVE PLAY -0.2041
-0.6021 AT HER -0.2218
-0.6021 AT LEAST 0.0000
-0.3010 AVAILABLE TO -0.2825
-0.3010 AWAY. </s> -0.3010
-0.3010 BECAUSE SHE -0.2553
-0.3010 BECOME POTTY 0.0000
-0.3010 BECOMING SHE -0.2553
-0.3010 BEEN THE -0.2688
-0.3010 BEFORE THE -0.2688
-0.3010 BEGINS ASSOCIATIVE 0.0000
-0.3010 BEING DEFIANT 0.0000
-0.3010 BELONG </s> -0.3010
-0.3010 BOOK EXPLORATION 0.0000
-0.3010 BOOKS </s> -0.3010
-0.3010 BUS" ACTION 0.0000
-0.3010 CARDS </s> -0.3010
-1.1461 CDP AND -0.2808
-1.1461 CDP PROVIDED 0.0000
-1.1461 CDP READ -0.1761
-1.1461 CDP REVIEWED 0.0000
-0.8451 CDP WILL 0.0000
-1.1461 CDP WILL, 0.0000
-0.3010 CERTAIN LOCATION, 0.0000
-0.3010 CH. 27, 0.0000
-0.3010 CHECKLIST POST 0.0000
-0.7782 CHILD BECOME 0.0000
-0.7782 CHILD HAS -0.1761
-0.7782 CHILD TO -0.2825
-0.6021 CHILD'S APPETITE 0.0000
-0.6021 CHILD'S EATING 0.0000
-0.3010 CHILDREN AND -0.2808
-0.3010 CHOOSE FROM -0.2430
-0.3010 CHURCH NOW 0.0000
-0.3010 COME TO -0.2632
-0.3010 COMPLETE HOME -0.1761
-0.3010 COMPLETED PREVIOUS 0.0000
-0.3010 COOPERATING OR 0.0000
-0.3010 CURRICULUM </s> -0.3010
-0.3010 DANGER </s> -0.3010
-0.3010 DAY </s> -0.3010
-0.3010 DEFIANT </s> -0.3010
-0.3010 DEMONSTRATION AND -0.2808
-0.3010 DEVELOPMENTAL TOYS -0.1761
-0.3010 DID HAVE -0.1761
-0.3010 DISCIPLINE ZAWADI -0.1761
-0.3010 DISCUSS POINTS 0.0000
-0.6021 DISCUSSED FAMILY -0.2218
-0.6021 DISCUSSED NP -0.1761
-0.6021 DURING PLAY -0.2553
-0.6021 DURING THE -0.2688
-0.6021 EAT MEAT. 0.0000
-0.6021 EAT RICE 0.0000
-0.3010 EATING HABITS 0.0000
-0.3010 ELAP CARDS 0.0000
-0.6021 ENCOURAGE ASSOCIATIVE 0.0000
-0.6021 ENCOURAGE MORE -0.1761
-0.3010 ENDS </s> -0.3010
-0.3010 ENGLISH </s> -0.3010
-0.3010 EXPLORATION DURING -0.1761
-0.3010 FAMILIAR TOYS -0.1761
-0.7782 FAMILY GOAL 0.0000
-0.7782 FAMILY GOALS 0.0000
-0.7782 FAMILY PLAY -0.2553
-0.6021 FETUS DID 0.0000
-0.6021 FETUS SAID 0.0000
-0.9031 FINDING SPIRITUAL 0.0000
-0.6021 FINDING THE -0.2341
-0.9031 FINDING YOUR -0.2218
-0.3010 FOLLOW UP 0.0000
-0.3010 FOODS AVAILABLE 0.0000
-0.3010 FRIENDLY MEALS. 0.0000
-0.9031 FROM 10-12. 0.0000
-0.9031 FROM DANGER 0.0000
-0.9031 FROM NP -0.1761
-0.9031 FROM SELECTION. 0.0000
-0.3010 FULL-TIME JOB 0.0000
-0.3010 GOAL PLAN. 0.0000
-0.3010 GOAL, PER 0.0000
-0.3010 GOALS </s> -0.3010
-0.3010 GOING TO -0.2825
-0.3010 GOLD WITHIN -0.1249
-0.7782 GROUP AT -0.1761
-0.7782 GROUP NEXT -0.1761
-0.7782 GROUP WITH -0.2430
-0.3010 GROUP, AND -0.2808
-0.3010 GROUP. </s> -0.3010
-0.3010 HABITS AND -0.2808
-0.6021 HAS BEEN 0.0000
-0.6021 HAS PLAYED 0.0000
-0.6021 HAVE READ -0.1761
-0.6021 HAVE TO -0.2825
-0.3010 HEALTHY FOODS 0.0000
-0.3010 HELP CHILD -0.2218
-0.7782 HER NEW -0.1761
-0.7782 HER SISTER 0.0000
-0.7782 HER TO -0.2825
-0.6021 HOME </s> -0.3010
-0.6021 HOME LITERACY 0.0000
-0.3010 HOUSE FROM -0.2430
-0.3010 HOUSE. </s> -0.3010
-0.3010 IDEAS ON -0.2218
-0.7782 IN A 0.0000
-0.7782 IN MOM'S 0.0000
-0.7782 IN YOUR -0.2218
-0.3010 INFORMED OF -0.1761
-0.3010 INVITED MOM -0.2632
-0.7782 IS BECOMING 0.0000
-0.7782 IS GOING 0.0000
-0.7782 IS TO -0.2825
-0.3010 IT </s> -0.3010
-0.3010 JOB THAT -0.2430
-0.3010 KEPT IN -0.2218
-0.3010 KID FRIENDLY 0.0000
-0.3010 KIDS </s> -0.3010
-0.3010 LEARNING ACTIVITIES 0.0000
-0.3010 LEAST ONCE 0.0000
-0.7782 LIKES IT 0.0000
-0.4771 LIKES TO -0.2632
-0.3010 LITERACY CHECKLIST 0.0000
-0.3010 LITTLE TALKS 0.0000
-0.3010 LOCATION, ASK 0.0000
-0.3010 LONGER LIKES -0.1249
-0.3010 MAINTAINING NUTRITIOUS 0.0000
-0.3010 MEALS. </s> -0.3010
-0.3010 MEAT. </s> -0.3010
-1.0792 MOM DISCUSSED -0.1761
-1.0792 MOM REPORTS 0.0000
-1.0792 MOM SAID 0.0000
-1.0792 MOM STARTS 0.0000
-1.0792 MOM TO -0.2825
-1.0792 MOM WAS -0.1761
-0.3010 MOM'S PARENTS' 0.0000
-0.3010 MOM, IS -0.2218
-0.6021 MORE BOOK 0.0000
-0.6021 MORE OF -0.1761
-0.3010 MOVE AROUND 0.0000
-0.3010 MUCH AS -0.1761
-0.3010 MUSIC </s> -0.3010
-0.6021 NEW FULL-TIME 0.0000
-0.6021 NEW GOAL, 0.0000
-0.6021 NEXT GROUP -0.2218
-0.6021 NEXT THURSDAY 0.0000
-0.3010 NO LONGER 0.0000
-0.3010 NOW AND -0.2808
-0.6021 NP CH. 0.0000
-0.6021 NP ON -0.2218
-0.3010 NUTRITIOUS AND -0.2808
-0.3010 OBJECTS WHERE 0.0000
-0.6021 OF LITTLE 0.0000
-0.6021 OF NEXT -0.1761
-0.7782 ON KID 0.0000
-0.7782 ON MAINTAINING 0.0000
-0.7782 ON THE -0.2688
-0.3010 ONCE BEFORE 0.0000
-0.3010 OR SHARING 0.0000
-0.3010 PARENTS COMPLETED 0.0000
-0.3010 PARENTS' HOME -0.1761
-0.3010 PER MOM, 0.0000
-0.3010 PLAN. </s> -0.3010
-1.0000 PLAY </s> -0.3010
-1.0000 PLAY GROUP, 0.0000
-1.0000 PLAY GROUP. 0.0000
-1.0000 PLAY THROUGH 0.0000
-1.0000 PLAY TIME. 0.0000
-0.3010 PLAY. </s> -0.3010
-0.3010 PLAYED WITH -0.2430
-0.3010 POINTS FROM -0.2430
-0.3010 POST TEST 0.0000
-0.3010 POTTY TRAINED. 0.0000
-0.3010 PREVIOUS ASSIGNMENT. 0.0000
-0.3010 PROGRAM YEAR 0.0000
-0.3010 PROOFING IN -0.2218
-0.3010 PROVIDED AND -0.2808
-0.3010 PURPOSEFUL PLAY. 0.0000
-0.3010 PUT THEM 0.0000
-0.3010 PUZZLES BOOKS 0.0000
-0.6021 READ ABOUT -0.1761
-0.6021 READ SIX 0.0000
-0.3010 REPLACES SOME 0.0000
-0.3010 REPORTS CHILD'S -0.1761
-0.3010 REVIEW FAMILY -0.2218
-0.3010 REVIEWED TODAY'S 0.0000
-0.3010 RICE AS -0.1761
-0.6021 SAFETY IN -0.2218
-0.6021 SAFETY PROOFING 0.0000
-0.3010 SAID THAT -0.1761
-0.3010 SAME. </s> -0.3010
-0.3010 SELECTION. </s> -0.3010
-0.3010 SELF </s> -0.3010
-0.3010 SHARING WITH -0.2430
-1.0000 SHE IS -0.2218
-1.0000 SHE LIKES -0.1249
-1.0000 SHE NO 0.0000
-1.0000 SHE WAS -0.1761
-1.0000 SHE WASN'T 0.0000
-0.3010 SISTER DURING -0.1761
-0.3010 SIX TIMES 0.0000
-0.3010 SOME OBJECTS 0.0000
-0.3010 SONG </s> -0.3010
-0.3010 SPANISH </s> -0.3010
-0.3010 SPIRITUAL SELF 0.0000
-0.3010 STAGES LEARNING 0.0000
-0.3010 START TALKING 0.0000
-0.3010 STARTS WORK 0.0000
-0.3010 STRENGTH WITHIN -0.2218
-0.3010 TALKING ABOUT -0.1761
-0.4771 TALKS </s> -0.3010
-0.7782 TALKS AND -0.2808
-0.3010 TEST </s> -0.3010
-0.9031 THAT ARE 0.0000
-0.9031 THAT DAY 0.0000
-0.9031 THAT SHE -0.2553
-0.9031 THAT ZAWADI -0.1761
-1.1461 THE BUS" 0.0000
-0.8451 THE GOLD 0.0000
-1.1461 THE KIDS 0.0000
-1.1461 THE PROGRAM 0.0000
-1.1461 THE SAME. 0.0000
-1.1461 THE WEEK. 0.0000
-0.3010 THEM AWAY. 0.0000
-0.6021 THEY BELONG 0.0000
-0.6021 THEY HAVE -0.1761
-0.3010 THIS WEEK. 0.0000
-0.3010 THROUGH ANIMATED 0.0000
-0.3010 THURSDAY FROM -0.2430
-0.3010 TIME. </s> -0.3010
-0.3010 TIMES TOGETHER 0.0000
-1.3802 TO CHILDREN 0.0000
-1.3802 TO CHOOSE 0.0000
-1.3802 TO CHURCH 0.0000
-1.3802 TO DISCIPLINE 0.0000
-1.0792 TO EAT 0.0000
-1.0792 TO GROUP -0.1249
-1.3802 TO HELP 0.0000
-1.3802 TO MUSIC 0.0000
-1.3802 TO PUT 0.0000
-1.3802 TO UPCOMING 0.0000
-0.3010 TODAY'S FAMILY -0.2218
-0.3010 TOGETHER THIS 0.0000
-0.6021 TOYS </s> -0.3010
-0.6021 TOYS THAT -0.2430
-0.3010 TRAINED. </s> -0.3010
-0.3010 UP WITH -0.2430
-0.3010 UPCOMING PLAY -0.2553
-0.6021 WAS BEING 0.0000
-0.6021 WAS INFORMED 0.0000
-0.3010 WASN'T COOPERATING 0.0000
-0.3010 WEEK. </s> -0.3010
-0.3010 WHERE THEY -0.1761
-0.6021 WILL FOLLOW 0.0000
-0.6021 WILL REVIEW 0.0000
-0.3010 WILL, ENCOURAGE -0.1761
-0.9031 WITH CHILD'S -0.1761
-0.9031 WITH FAMILIAR 0.0000
-0.9031 WITH HER -0.2218
-0.9031 WITH THE -0.2688
-0.4771 WITHIN </s> -0.3010
-0.7782 WITHIN YOURSELF 0.0000
-0.3010 WORK AT -0.1761
-0.3010 YEAR ENDS 0.0000
-0.7782 YOUR HOUSE 0.0000
-0.7782 YOUR HOUSE. 0.0000
-0.7782 YOUR STRENGTH 0.0000
-0.3010 YOURSELF AND -0.2808
-0.6021 ZAWADI BECAUSE 0.0000
-0.6021 ZAWADI IS -0.2218

\3-grams:
-0.3010 "CHILDPROOFING YOUR HOUSE
-0.3010 "WHEELS ON THE
-0.3010 27, "CHILDPROOFING YOUR
-0.3010 <s> "WHEELS ON
-0.3010 <s> AFTER CHILD
-0.3010 <s> AGES AND
-0.3010 <s> ALLOW CHILD
-0.3010 <s> BEGINS ASSOCIATIVE
-1.1461 <s> CDP AND
-1.1461 <s> CDP PROVIDED
-1.1461 <s> CDP READ
-1.1461 <s> CDP REVIEWED
-0.8451 <s> CDP WILL
-1.1461 <s> CDP WILL,
-0.3010 <s> COME TO
-0.3010 <s> COMPLETE HOME
-0.3010 <s> CURRICULUM </s>
-0.3010 <s> DEVELOPMENTAL TOYS
-0.3010 <s> DISCUSS POINTS
-0.3010 <s> ELAP CARDS
-0.3010 <s> ENCOURAGE MORE
-0.3010 <s> ENGLISH </s>
-0.6021 <s> FETUS DID
-0.6021 <s> FETUS SAID
-0.3010 <s> FINDING THE
-0.3010 <s> LITTLE TALKS
-0.9031 <s> MOM REPORTS
-0.9031 <s> MOM SAID
-0.9031 <s> MOM STARTS
-0.9031 <s> MOM WAS
-0.3010 <s> MORE OF
-0.3010 <s> MOVE AROUND
-0.3010 <s> NEW GOAL,
-0.3010 <s> PARENTS COMPLETED
-0.3010 <s> PUZZLES BOOKS
-0.3010 <s> REPLACES SOME
-0.3010 <s> SHE NO
-0.3010 <s> SPANISH </s>
-0.3010 <s> START TALKING
-0.3010 <s> THEY HAVE
-0.3010 A CERTAIN LOCATION,
-0.3010 ABOUT FINDING YOUR
-0.3010 ABOUT SAFETY PROOFING
-0.3010 ACTION SONG </s>
-0.3010 AFTER CHILD HAS
-0.3010 AGES AND STAGES
-0.3010 ALLOW CHILD TO
-0.3010 AND APPETITE. </s>
-0.3010 AND DISCUSSED NP
-0.3010 AND FINDING SPIRITUAL
-0.3010 AND HEALTHY FOODS
-0.3010 AND IDEAS ON
-0.3010 AND INVITED MOM
-0.3010 AND LIKES IT
-0.3010 AND MOM DISCUSSED
-0.3010 AND PURPOSEFUL PLAY.
-0.3010 AND SAFETY IN
-0.3010 AND STAGES LEARNING
-0.3010 ANIMATED DEMONSTRATION AND
-0.3010 APPETITE HAS BEEN
-0.3010 ARE KEPT IN
-0.3010 AROUND TO MUSIC
-0.3010 AS MUCH AS
-0.3010 AS SHE LIKES
-0.3010 ASK HER TO
-0.6021 ASSOCIATIVE PLAY </s>
-0.6021 ASSOCIATIVE PLAY THROUGH
-0.3010 AT HER NEW
-0.3010 AT LEAST ONCE
-0.3010 AVAILABLE TO CHILDREN
-0.3010 BECAUSE SHE WASN'T
-0.3010 BECOME POTTY TRAINED.
-0.3010 BECOMING SHE WAS
-0.3010 BEEN THE SAME.
-0.3010 BEFORE THE PROGRAM
-0.3010 BEGINS ASSOCIATIVE PLAY
-0.3010 BEING DEFIANT </s>
-0.3010 BOOK EXPLORATION DURING
-0.3010 BUS" ACTION SONG
-0.3010 CDP AND MOM
-0.3010 CDP PROVIDED AND
-0.3010 CDP READ ABOUT
-0.3010 CDP REVIEWED TODAY'S
-0.6021 CDP WILL FOLLOW
-0.6021 CDP WILL REVIEW
-0.3010 CDP WILL, ENCOURAGE
-0.3010 CERTAIN LOCATION, ASK
-0.3010 CH. 27, "CHILDPROOFING
-0.3010 CHECKLIST POST TEST
-0.3010 CHILD BECOME POTTY
-0.3010 CHILD HAS PLAYED
-0.3010 CHILD TO CHOOSE
-0.3010 CHILD'S APPETITE HAS
-0.3010 CHILD'S EATING HABITS
-0.3010 CHILDREN AND IDEAS
-0.3010 CHOOSE FROM SELECTION.
-0.3010 CHURCH NOW AND
-0.3010 COME TO GROUP
-0.3010 COMPLETE HOME LITERACY
-0.3010 COMPLETED PREVIOUS ASSIGNMENT.
-0.3010 COOPERATING OR SHARING
-0.3010 DEMONSTRATION AND PURPOSEFUL
-0.3010 DEVELOPMENTAL TOYS </s>
-0.3010 DID HAVE TO
-0.3010 DISCIPLINE ZAWADI BECAUSE
-0.3010 DISCUSS POINTS FROM
-0.3010 DISCUSSED FAMILY GOALS
-0.3010 DISCUSSED NP ON
-0.3010 DURING PLAY TIME.
-0.3010 DURING THE WEEK.
-0.3010 EAT MEAT. </s>
-0.3010 EAT RICE AS
-0.3010 EATING HABITS AND
-0.3010 ELAP CARDS </s>
-0.3010 ENCOURAGE ASSOCIATIVE PLAY
-0.3010 ENCOURAGE MORE BOOK
-0.3010 EXPLORATION DURING THE
-0.3010 FAMILIAR TOYS THAT
-0.3010 FAMILY GOAL PLAN.
-0.3010 FAMILY GOALS </s>
-0.3010 FAMILY PLAY GROUP,
-0.3010 FETUS DID HAVE
-0.3010 FETUS SAID THAT
-0.3010 FINDING SPIRITUAL SELF
-0.3010 FINDING THE GOLD
-0.3010 FINDING YOUR STRENGTH
-0.3010 FOLLOW UP WITH
-0.3010 FOODS AVAILABLE TO
-0.3010 FRIENDLY MEALS. </s>
-0.3010 FROM 10-12. </s>
-0.3010 FROM DANGER </s>
-0.3010 FROM NP CH.
-0.3010 FROM SELECTION. </s>
-0.3010 FULL-TIME JOB THAT
-0.3010 GOAL PLAN. </s>
-0.3010 GOAL, PER MOM,
-0.3010 GOING TO CHURCH
-0.3010 GOLD WITHIN </s>
-0.3010 GROUP AT LEAST
-0.3010 GROUP NEXT THURSDAY
-0.3010 GROUP WITH THE
-0.3010 GROUP, AND INVITED
-0.3010 HABITS AND APPETITE.
-0.3010 HAS BEEN THE
-0.3010 HAS PLAYED WITH
-0.3010 HAVE READ SIX
-0.3010 HAVE TO DISCIPLINE
-0.3010 HEALTHY FOODS AVAILABLE
-0.3010 HELP CHILD BECOME
-0.3010 HER NEW FULL-TIME
-0.3010 HER SISTER DURING
-0.3010 HER TO PUT
-0.3010 HOME LITERACY CHECKLIST
-0.3010 HOUSE FROM DANGER
-0.3010 IDEAS ON KID
-0.3010 IN A CERTAIN
-0.3010 IN MOM'S PARENTS'
-0.3010 IN YOUR HOUSE.
-0.3010 INFORMED OF NEXT
-0.3010 INVITED MOM TO
-0.3010 IS BECOMING SHE
-0.3010 IS GOING TO
-0.3010 IS TO HELP
-0.3010 JOB THAT DAY
-0.3010 KEPT IN A
-0.3010 KID FRIENDLY MEALS.
-0.3010 LEARNING ACTIVITIES </s>
-0.3010 LEAST ONCE BEFORE
-0.3010 LIKES IT </s>
-0.3010 LIKES TO EAT
-0.3010 LITERACY CHECKLIST POST
-0.4771 LITTLE TALKS </s>
-0.7782 LITTLE TALKS AND
-0.3010 LOCATION, ASK HER
-0.3010 LONGER LIKES TO
-0.3010 MAINTAINING NUTRITIOUS AND
-0.3010 MOM DISCUSSED FAMILY
-0.3010 MOM REPORTS CHILD'S
-0.3010 MOM SAID THAT
-0.3010 MOM STARTS WORK
-0.3010 MOM TO UPCOMING
-0.3010 MOM WAS INFORMED
-0.3010 MOM'S PARENTS' HOME
-0.3010 MOM, IS TO
-0.3010 MORE BOOK EXPLORATION
-0.3010 MORE OF LITTLE
-0.3010 MOVE AROUND TO
-0.3010 MUCH AS SHE
-0.3010 NEW FULL-TIME JOB
-0.3010 NEW GOAL, PER
-0.3010 NEXT GROUP NEXT
-0.3010 NEXT THURSDAY FROM
-0.3010 NO LONGER LIKES
-0.3010 NOW AND LIKES
-0.3010 NP CH. 27,
-0.3010 NP ON MAINTAINING
-0.3010 NUTRITIOUS AND HEALTHY
-0.3010 OBJECTS WHERE THEY
-0.3010 OF LITTLE TALKS
-0.3010 OF NEXT GROUP
-0.3010 ON KID FRIENDLY
-0.3010 ON MAINTAINING NUTRITIOUS
-0.3010 ON THE BUS"
-0.3010 ONCE BEFORE THE
-0.3010 OR SHARING WITH
-0.3010 PARENTS COMPLETED PREVIOUS
-0.3010 PARENTS' HOME </s>
-0.3010 PER MOM, IS
-0.3010 PLAY GROUP, AND
-0.3010 PLAY GROUP. </s>
-0.3010 PLAY THROUGH ANIMATED
-0.3010 PLAY TIME. </s>
-0.3010 PLAYED WITH FAMILIAR
-0.3010 POINTS FROM NP
-0.3010 POST TEST </s>
-0.3010 POTTY TRAINED. </s>
-0.3010 PREVIOUS ASSIGNMENT. </s>
-0.3010 PROGRAM YEAR ENDS
-0.3010 PROOFING IN MOM'S
-0.3010 PROVIDED AND DISCUSSED
-0.3010 PURPOSEFUL PLAY. </s>
-0.3010 PUT THEM AWAY.
-0.3010 PUZZLES BOOKS </s>
-0.3010 READ ABOUT FINDING
-0.3010 READ SIX TIMES
-0.3010 REPLACES SOME OBJECTS
-0.3010 REPORTS CHILD'S APPETITE
-0.3010 REVIEW FAMILY GOAL
-0.3010 REVIEWED TODAY'S FAMILY
-0.3010 RICE AS MUCH
-0.3010 SAFETY IN YOUR
-0.3010 SAFETY PROOFING IN
-0.6021 SAID THAT SHE
-0.6021 SAID THAT ZAWADI
-0.3010 SHARING WITH HER
-0.3010 SHE IS GOING
-0.3010 SHE LIKES TO
-0.3010 SHE NO LONGER
-0.3010 SHE WAS BEING
-0.3010 SHE WASN'T COOPERATING
-0.3010 SISTER DURING PLAY
-0.3010 SIX TIMES TOGETHER
-0.3010 SOME OBJECTS WHERE
-0.3010 SPIRITUAL SELF </s>
-0.3010 STAGES LEARNING ACTIVITIES
-0.3010 START TALKING ABOUT
-0.3010 STARTS WORK AT
-0.3010 STRENGTH WITHIN YOURSELF
-0.3010 TALKING ABOUT SAFETY
-0.3010 TALKS AND SAFETY
-0.3010 THAT ARE KEPT
-0.3010 THAT DAY </s>
-0.3010 THAT SHE IS
-0.3010 THAT ZAWADI IS
-0.3010 THE BUS" ACTION
-0.3010 THE GOLD WITHIN
-0.3010 THE KIDS </s>
-0.3010 THE PROGRAM YEAR
-0.3010 THE SAME. </s>
-0.3010 THE WEEK. </s>
-0.3010 THEM AWAY. </s>
-0.3010 THEY BELONG </s>
-0.3010 THEY HAVE READ
-0.3010 THIS WEEK. </s>
-0.3010 THROUGH ANIMATED DEMONSTRATION
-0.3010 THURSDAY FROM 10-12.
-0.3010 TIMES TOGETHER THIS
-0.3010 TO CHILDREN AND
-0.3010 TO CHOOSE FROM
-0.3010 TO CHURCH NOW
-0.3010 TO DISCIPLINE ZAWADI
-0.6021 TO EAT MEAT.
-0.6021 TO EAT RICE
-0.6021 TO GROUP AT
-0.6021 TO GROUP WITH
-0.3010 TO HELP CHILD
-0.3010 TO MUSIC </s>
-0.3010 TO PUT THEM
-0.3010 TO UPCOMING PLAY
-0.3010 TODAY'S FAMILY PLAY
-0.3010 TOGETHER THIS WEEK.
-0.3010 TOYS THAT ARE
-0.3010 UP WITH CHILD'S
-0.3010 UPCOMING PLAY GROUP.
-0.3010 WAS BEING DEFIANT
-0.3010 WAS INFORMED OF
-0.3010 WASN'T COOPERATING OR
-0.3010 WHERE THEY BELONG
-0.3010 WILL FOLLOW UP
-0.3010 WILL REVIEW FAMILY
-0.3010 WILL, ENCOURAGE ASSOCIATIVE
-0.3010 WITH CHILD'S EATING
-0.3010 WITH FAMILIAR TOYS
-0.3010 WITH HER SISTER
-0.3010 WITH THE KIDS
-0.3010 WITHIN YOURSELF AND
-0.3010 WORK AT HER
-0.3010 YEAR ENDS </s>
-0.3010 YOUR HOUSE FROM
-0.3010 YOUR HOUSE. </s>
-0.3010 YOUR STRENGTH WITHIN
-0.3010 YOURSELF AND FINDING
-0.3010 ZAWADI BECAUSE SHE
-0.3010 ZAWADI IS BECOMING

\end\
